tree
version=v4
num_class=1
num_tree_per_iteration=1
label_index=0
max_feature_idx=75
objective=lambdarank
feature_names=Column_0 Column_1 Column_2 Column_3 Column_4 Column_5 Column_6 Column_7 Column_8 Column_9 Column_10 Column_11 Column_12 Column_13 Column_14 Column_15 Column_16 Column_17 Column_18 Column_19 Column_20 Column_21 Column_22 Column_23 Column_24 Column_25 Column_26 Column_27 Column_28 Column_29 Column_30 Column_31 Column_32 Column_33 Column_34 Column_35 Column_36 Column_37 Column_38 Column_39 Column_40 Column_41 Column_42 Column_43 Column_44 Column_45 Column_46 Column_47 Column_48 Column_49 Column_50 Column_51 Column_52 Column_53 Column_54 Column_55 Column_56 Column_57 Column_58 Column_59 Column_60 Column_61 Column_62 Column_63 Column_64 Column_65 Column_66 Column_67 Column_68 Column_69 Column_70 Column_71 Column_72 Column_73 Column_74 Column_75
feature_infos=[0.0025781501772477:0.12551271534044309] [0.49801540571879183:5.9989579923186866] [0:14] [-0.38714568995684129:0.46410461702695488] [-0.42780356706572192:1.1011106855610877] [-0.0417241831629983:0.063018141260195296] [0.0031449070481405:0.091106738134762] [0.0029749256268592999:0.1632485643970466] [-0.058735346796018197:0.017398770305432] [-3.3273118211675508:1.7250489022969242] [-0.33209037069532799:0.081637908833376294] [0:0.029982363315696699] [0.062251925714848902:0.74986974903983583] [0.56285930391930816:0.9212778751244346] [-0.96381306246837362:13.075769317006586] [-0.50661503811929176:0.47550593275245612] [0.48493501482118118:0.93396655347323843] [0.53652577558355097:0.99999999996688205] [2.9769689347008681e-05:0.81432069632297488] [-0.24563552052621149:0.19067802724327951] [0:0.95195958014177884] [-0.27371057038628788:0.24066240599364089] [-6.3820312687873981:8.1669789583477943] [0:0.99999999987692323] [0:0.99999999750000002] [0.0071111221618813999:0.12989098853226869] [0.29499879142255248:3.3531338437352285] [-0.094871874997401795:0.0417241831629983] [-0.39637263240898091:0.75786737058870468] [-0.11660467505046809:0.77999653960366688] [-3.3273118211676027:1.7250489022969233] [0.054753000386827316:6.1441113155092273] [0.0040107579398001563:0.39807364475406498] [-47.428530492178581:32.634032634032501] [-0.33209037069532799:0.073545554335894603] [-0.029105521557829021:0.052708052587526644] [0:1.0460295151089238] [-0.060325689958115034:0.21223922675834367] [-1.3252138633550956:8.1603821959272391] [-1.4424624414462248:6.5466428311139078] [-2.8021155145374452:10.690279301211401] [-8.0932888684064874:9.0174438075557823] [-5.9432522896875426:10.515908881780954] [-4.4621485249539861:9.1860403471951138] [-2.4193285882160791:6.2158665192596381] [-1.6067173891154658:8.0223222597467423] [-6.9388938990537296e-10:6.9388938990874734e-10] [-6.0706545323811376:6.1245953164560101] [-15.544849818188009:10.286988646065042] [-2.453704799122173:6.4132400984341258] [-1.4424623302117991:6.546642215384546] [-3.6330004003426999:4.6464302245631535] [-2.3641529080749368:12.433851255527513] [-4.2169852992809336:4.834258907538576] [-6.9206029403889309:2.1946068460957151] [-8.0539187050103447:2.2542478854024153] [-2.2764267552760931:4.7505845412715919] [-8.4910226290071336:7.0599931999664554] [-3.8533049001736939:2.0688573934559895] [-8.6251549777103147:9.2229012787524152] [-5.7828563861734379:7.2358276126340613] [-3.7510687280603485:4.0277769628073719] [-4.0229981139185318:4.3313704377015672] [-2.5092787804524419:6.1593912852004191] [-2.7178876920011295:6.6240854348980873] [-10.431965241755247:3.9569675268437594] [-6.3715425482788604:9.5867380536250053] [-8.9779078461825783:16.598465236596066] [-6.0706545323812335:6.1245953164560554] [-1.8736987744240539:8.2529499334823058] [-1.9794560185623951:4.3978215288818703] [-15.124580068364466:15.236846511426453] [-15.857661450490101:10.327852167493484] [-10.16277959034686:12.858490859507743] [-1.5669871776968884:15.066054024110734] [-5.917475201939717:14.207370760067905]
tree_sizes=1768 1744 1753 1757 1750 1720

Tree=0
num_leaves=15
num_cat=0
split_feature=63 74 13 34 50 50 74 61 26 27 45 37 25 16
split_gain=6.5708 3.6565 2.55526 2.19665 2.7869 2.94809 2.04122 2.04099 2.4395 2.83462 2.77654 2.75328 3.81707 2.18862
threshold=-0.23370350505244611 0.26059115038361252 0.61936437491995544 0.0085533776211606516 1.064238002595262 0.2676215763781683 0.80582315596410536 -1.1849233586849055 1.1150997407407803 -0.0017495447631554997 -0.39235877933931912 0.00014276028737455099 0.060948230556609757 0.76572693568525274
decision_type=2 2 2 2 2 2 2 2 2 2 2 2 2 2
left_child=-1 2 -2 4 5 -3 -7 -4 11 -10 -11 12 -9 -13
right_child=1 3 7 -5 -6 6 -8 8 9 10 -12 13 -14 -15
leaf_value=-0.0073350202619333728 -0.02835394381388014 -0.0088532947303946799 -0.0032624192382138708 0.030427138313922211 -0.022032057692834006 -0.0068478736996873332 0.02881071873009319 0.018974000033556902 0.010313244464977526 0.015557562023719582 -0.02477947051820063 -0.011206915244841556 0.065975246060452741 0.013905641756707313
leaf_weight=188.65100204444025 3.6033804579637936 32.19505092583131 26.677738197962753 3.1711379555054 20.036506868316792 5.3541975009720764 10.534102684934622 24.142905448679816 43.527307996177115 5.2033044323325184 12.860084015061146 9.0590125746093673 4.9586372509365892 62.567168683046475
leaf_count=17089 209 2240 1814 195 1475 352 677 1705 3187 376 804 736 83 4489
internal_value=-0.000220242 0.00485561 0.00843421 -0.0047261 -0.00685143 -0.000103753 0.0168041 0.00930747 0.0114113 0.00339162 -0.0126912 0.0161843 0.0290744 0.0105501
internal_weight=452.542 263.891 192.6 71.291 68.1199 48.0834 15.8883 188.996 162.318 61.5907 18.0634 100.728 29.1015 71.6262
internal_count=35431 18342 13403 4939 4744 3269 1029 13194 11380 4367 1180 7013 1788 5225
is_linear=0
shrinkage=0.05


Tree=1
num_leaves=15
num_cat=0
split_feature=63 72 36 5 58 25 51 11 58 25 64 53 18 17
split_gain=15.7269 10.2787 8.11503 5.80605 9.56593 7.23299 5.62629 6.9347 5.47002 6.53673 6.33459 4.84653 4.51125 4.11914
threshold=-0.23370350505244611 1.606205074302276 0.04917564135009201 0.00034756769463125005 0.63754709071564908 0.060948230556609757 -0.7555071383992179 0.0044330685837130008 0.83827380759031545 0.032596530499385455 0.18261035043061821 -0.2734708992238199 0.089733214438571421 0.84588024429496123
decision_type=2 2 2 2 2 2 2 2 2 2 2 2 2 2
left_child=-1 3 8 4 5 -2 7 -4 9 -3 -11 -12 -7 -14
right_child=1 2 6 -5 -6 12 -8 -9 -10 10 11 -13 13 -15
leaf_value=-0.01217786760790792 0.010908019894357315 -0.040139048446758932 0.053917292728303937 -0.0017515924986726871 -0.010915558878623159 0.072973976380790659 0.059969524022147558 -0.036601659737817427 -0.026722352718507203 0.036679486452831027 0.029073121330121916 -0.036138531775718727 0.043366053205975592 -0.023991888203634255
leaf_weight=202.28810756932944 136.28769393032417 3.5305753475986412 2.8499702885746983 418.6642538853921 46.740283268969506 7.2778748383279872 16.696797782089561 3.6829245984554291 7.7544994878116986 25.217906596604735 3.8743689204566181 5.8476615324616414 4.2660360331647098 3.0359349362552166
leaf_count=17089 3022 63 7 13090 1147 62 58 14 141 400 112 137 46 43
internal_value=3.25028e-05 0.00365431 0.0217524 0.00157459 0.00862016 0.0147375 0.0452934 0.0041388 0.00910776 0.0169508 0.023815 -0.00939666 0.0472153 0.0152419
internal_weight=888.015 685.727 69.4547 616.272 197.608 150.868 23.2297 6.53289 46.225 38.4705 34.9399 9.72203 14.5798 7.30197
internal_count=35431 18342 932 17410 4320 3173 79 21 853 712 649 249 151 89
is_linear=0
shrinkage=0.05


Tree=2
num_leaves=15
num_cat=0
split_feature=63 72 41 58 62 33 5 6 62 49 55 57 15 34
split_gain=18.1806 12.8516 9.05118 12.237 7.81393 9.62035 7.01203 6.50839 6.37957 5.86478 5.03175 4.86496 4.6857 4.47802
threshold=-0.23370350505244611 1.606205074302276 -0.29027362512102722 -1.0775388672206641 -0.62405731980918488 0.1269918716550506 0.00034756769463125005 0.040426141825189353 -0.47115738625041204 -0.48196562544937899 -0.7472063634142293 -0.46837918305790688 -0.080929981131405385 0.0082216572862207505
decision_type=2 2 2 2 2 2 2 2 2 2 2 2 2 2
left_child=-1 6 4 11 5 -3 7 -2 -6 -10 -11 -4 -9 -5
right_child=1 2 3 13 8 -7 -8 12 9 10 -12 -13 -14 -15
leaf_value=-0.013720043760606721 0.0037247430819758961 0.039570692437151576 0.018983501031727287 -0.0019872446741557434 0.063401406799025894 -0.055393514476350936 -0.0032686602216294167 0.042572520150012574 -0.036754535962410122 0.035329835689121313 -0.013192216676801231 -0.048157274774685593 0.0076738339552698794 0.044714052961028185
leaf_weight=186.64188145752996 152.53522625518963 2.7639249558560541 3.8645836119540036 5.3881716101896009 4.6086657601408687 9.0133263545576465 361.66925140167587 20.349101073574275 5.6631880549248335 12.762882371433085 7.8580791736021594 5.2686272235587222 19.222570347366855 50.035070320591331
leaf_count=17089 3671 27 43 45 23 130 13090 301 60 93 92 52 348 367
internal_value=1.19647e-05 0.00391178 0.0196726 0.0313433 0.00158794 -0.0313629 0.000821063 0.00852351 0.0148961 0.00419585 0.0168532 -0.0201844 0.0263502 0.0401304
internal_weight=847.645 661.003 107.227 64.5565 42.6701 11.7773 553.776 192.107 30.8928 26.2841 20.621 9.13321 39.5717 55.4232
internal_count=35431 18342 932 507 425 157 17410 4320 268 245 185 95 649 412
is_linear=0
shrinkage=0.05


Tree=3
num_leaves=15
num_cat=0
split_feature=72 63 37 44 53 13 25 34 16 22 69 39 8 58
split_gain=18.3122 10.7059 6.85989 7.50828 4.56937 4.37879 3.88313 3.75288 3.63609 3.56737 4.32371 5.17467 3.61841 3.56057
threshold=1.606205074302276 -0.23370350505244611 0.00043919326071664944 1.1343738054807493 0.71727085677066749 0.62770590687781447 0.032296618642936405 -0.0012787723785166248 0.72333177881398769 -0.79448483685279558 0.16283310436493972 -0.57678508570904419 0.0056934748804401006 -0.051317697764395494
decision_type=2 2 2 2 2 2 2 2 2 2 2 2 2 2
left_child=1 -1 3 4 7 -5 -2 -3 -8 10 11 -10 -11 -14
right_child=6 2 -4 5 -6 -7 8 -9 9 12 -12 -13 13 -15
leaf_value=-0.013479386838807388 -0.019363776285978324 0.0069683185327003285 -0.0038492958000940049 -0.037196195964923823 0.017229174330801154 0.024617712820826174 -0.028955276108275203 -0.0097257481393409791 -0.042674041523687423 0.031232215204241728 -0.047942571987133531 0.037268933710031114 0.028558210061460594 -0.053644493539712505
leaf_weight=168.54374861135148 4.813816860318183 58.677253106143326 323.22652355884202 2.077935730572789 36.823976610787213 61.08446749788709 2.343056929530575 75.88924124231562 1.8055151822045434 72.665148084750399 2.6043734194245181 6.4655715280678114 1.5213421611115339 1.820406560320406
leaf_count=16789 293 1180 12958 36 762 743 49 1731 19 693 44 80 18 36
internal_value=0.000216694 -0.00247452 0.00086003 0.00735975 0.00185463 0.0219582 0.0208626 -0.00241177 0.0232788 0.0250578 -0.00120347 0.0165581 0.0288472 -0.0171116
internal_weight=820.362 726.323 557.779 234.553 171.39 63.1624 94.0392 134.566 89.2254 86.8824 10.8755 8.27109 76.0069 3.34175
internal_count=35431 34199 17410 4452 3673 779 1232 2911 939 890 143 99 747 54
is_linear=0
shrinkage=0.05


Tree=4
num_leaves=15
num_cat=0
split_feature=63 10 37 44 41 63 21 41 52 8 26 62 53 15
split_gain=14.4558 9.61281 5.45285 5.29862 4.82022 4.74061 4.67947 3.84473 3.77901 3.69238 4.74402 4.35385 3.7339 4.75751
threshold=-0.23370350505244611 0.015369005944526301 0.00043919326071664944 1.1039776356684665 -0.6971022422588663 0.63440511292844426 -0.020669351878081398 1.8544462411985989 -0.16474169905230959 0.00083045775476900017 1.1334137754802007 -0.79739801674837851 -1.6716741188345554 -0.080929981131405385
decision_type=2 2 2 2 2 2 2 2 2 2 2 2 2 2
left_child=-1 2 3 -2 6 -6 -3 -7 -9 12 11 -11 -5 -14
right_child=1 4 -4 9 5 7 -8 8 -10 10 -12 -13 13 -15
leaf_value=-0.01287264143351672 0.0021036663635058037 0.01170043169836589 -0.0025826102460459899 -0.023343316036138036 0.0060459965676629389 0.044511233020698517 -0.046496169390318559 -0.029310638847267079 0.031208607943425545 -0.023405818582225978 -0.042615575904465457 0.030404561678847586 0.043736468935169116 0.012429602907750234
leaf_weight=163.31562717654742 152.99778896127827 11.817801175871862 331.96275268611498 2.9098817370831958 19.698064601048827 31.324611268937588 3.7151737329550079 3.4980896045453846 5.0102114167530072 4.6590141144115487 4.0648743603378525 10.301270248601213 24.794583685696125 26.122083170805126
leaf_count=17089 3605 182 12932 27 347 315 71 51 59 62 57 115 200 319
internal_value=0.000336944 0.00376854 0.00148238 0.00746435 0.0204488 0.0268404 -0.003887 0.0366013 0.00533518 0.0184738 -0.000234017 0.0129168 0.0250611 0.02832
internal_weight=796.192 632.876 557.812 225.849 75.064 59.531 15.533 39.8329 8.5083 72.8517 19.0252 14.9603 53.8265 50.9167
internal_count=35431 18342 17317 4385 1025 772 253 425 110 780 234 177 546 519
is_linear=0
shrinkage=0.05


Tree=5
num_leaves=15
num_cat=0
split_feature=72 63 25 52 26 57 10 21 41 41 4 54 33 61
split_gain=10.781 6.94516 5.5225 4.49162 5.60548 4.20203 3.6978 4.12369 4.12433 3.5155 2.98612 2.73633 2.61182 2.73979
threshold=1.606205074302276 -0.23370350505244611 0.045740161989799855 -0.79384283364441 1.0913298907112428 0.91736962303414893 0.027534293640449802 0.032697141910967155 -0.29027362512102722 -1.0136627994008773 0.26580696589132152 0.35851343580424805 1.541573132711062 -1.3458765686409675
decision_type=2 2 2 2 2 2 2 2 2 2 2 2 2 2
left_child=1 -1 3 -2 5 12 7 8 9 -4 -9 -11 13 -5
right_child=2 -3 6 4 -6 -7 -8 10 -10 11 -12 -13 -14 -15
leaf_value=-0.012170683303291753 -0.039693328870751846 -1.6942886054347648e-05 0.021189646411288027 -0.024059137465659353 -0.020332689925614558 -0.043901959212057667 0.04344743751541872 -0.044857293380620472 0.03548626782908941 -0.050293586042638165 0.024240746803096375 0.011509194844984147 -0.0049136782902843837 0.04666292186075667
leaf_weight=149.63127265288495 5.0651475950144222 538.92404551524669 7.6535131330601844 0.81608033739030794 10.35348128643818 1.15474098548293 17.974264136981219 3.5769446510821572 20.3313805796206 3.4708497351966807 1.4993182253092525 2.2866780632175505 3.5312100383453062 12.579669549595568
leaf_count=16695 91 17424 86 49 269 23 146 39 154 48 12 39 72 211
internal_value=-0.000535934 -0.00267917 0.0156034 -0.000390757 0.00755099 0.0240079 0.0249679 0.0154094 0.0218266 0 -0.0229951 -0.0269371 0.0311101 0.0406352
internal_weight=778.849 688.555 90.2933 33.5003 28.4352 18.0817 56.7929 38.8187 33.7424 13.411 5.07626 5.75753 16.927 13.3957
internal_count=35358 34119 1239 715 624 355 524 378 327 173 51 87 332 260
is_linear=0
shrinkage=0.05


end of trees

feature_importances:
Column_63=7
Column_25=5
Column_41=5
Column_58=4
Column_72=4
Column_26=3
Column_34=3
Column_37=3
Column_53=3
Column_62=3
Column_5=2
Column_8=2
Column_10=2
Column_13=2
Column_15=2
Column_16=2
Column_21=2
Column_33=2
Column_44=2
Column_50=2
Column_52=2
Column_57=2
Column_61=2
Column_74=2
Column_4=1
Column_6=1
Column_11=1
Column_17=1
Column_18=1
Column_22=1
Column_27=1
Column_36=1
Column_39=1
Column_45=1
Column_49=1
Column_51=1
Column_54=1
Column_55=1
Column_64=1
Column_69=1

parameters:
[boosting: gbdt]
[objective: lambdarank]
[metric: ndcg]
[tree_learner: serial]
[device_type: cpu]
[data_sample_strategy: bagging]
[data: ]
[valid: ]
[num_iterations: 500]
[learning_rate: 0.05]
[num_leaves: 15]
[num_threads: 0]
[seed: 0]
[deterministic: 0]
[force_col_wise: 0]
[force_row_wise: 0]
[histogram_pool_size: -1]
[max_depth: -1]
[min_data_in_leaf: 10]
[min_sum_hessian_in_leaf: 0.001]
[bagging_fraction: 0.8]
[pos_bagging_fraction: 1]
[neg_bagging_fraction: 1]
[bagging_freq: 5]
[bagging_seed: 3]
[bagging_by_query: 0]
[feature_fraction: 0.8]
[feature_fraction_bynode: 1]
[feature_fraction_seed: 2]
[extra_trees: 0]
[extra_seed: 6]
[early_stopping_round: 0]
[early_stopping_min_delta: 0]
[first_metric_only: 0]
[max_delta_step: 0]
[lambda_l1: 0.1]
[lambda_l2: 1]
[linear_lambda: 0]
[min_gain_to_split: 0]
[drop_rate: 0.1]
[max_drop: 50]
[skip_drop: 0.5]
[xgboost_dart_mode: 0]
[uniform_drop: 0]
[drop_seed: 4]
[top_rate: 0.2]
[other_rate: 0.1]
[min_data_per_group: 100]
[max_cat_threshold: 32]
[cat_l2: 10]
[cat_smooth: 10]
[max_cat_to_onehot: 4]
[top_k: 20]
[monotone_constraints: ]
[monotone_constraints_method: basic]
[monotone_penalty: 0]
[feature_contri: ]
[forcedsplits_filename: ]
[refit_decay_rate: 0.9]
[cegb_tradeoff: 1]
[cegb_penalty_split: 0]
[cegb_penalty_feature_lazy: ]
[cegb_penalty_feature_coupled: ]
[path_smooth: 0]
[interaction_constraints: ]
[verbosity: -1]
[saved_feature_importance_type: 0]
[use_quantized_grad: 0]
[num_grad_quant_bins: 4]
[quant_train_renew_leaf: 0]
[stochastic_rounding: 1]
[linear_tree: 0]
[max_bin: 255]
[max_bin_by_feature: ]
[min_data_in_bin: 3]
[bin_construct_sample_cnt: 200000]
[data_random_seed: 1]
[is_enable_sparse: 1]
[enable_bundle: 1]
[use_missing: 1]
[zero_as_missing: 0]
[feature_pre_filter: 1]
[pre_partition: 0]
[two_round: 0]
[header: 0]
[label_column: ]
[weight_column: ]
[group_column: ]
[ignore_column: ]
[categorical_feature: ]
[forcedbins_filename: ]
[precise_float_parser: 0]
[parser_config_file: ]
[objective_seed: 5]
[num_class: 1]
[is_unbalance: 0]
[scale_pos_weight: 1]
[sigmoid: 1]
[boost_from_average: 1]
[reg_sqrt: 0]
[alpha: 0.9]
[fair_c: 1]
[poisson_max_delta_step: 0.7]
[tweedie_variance_power: 1.5]
[lambdarank_truncation_level: 30]
[lambdarank_norm: 1]
[label_gain: ]
[lambdarank_position_bias_regularization: 0]
[eval_at: 1,5,10]
[multi_error_top_k: 1]
[auc_mu_weights: ]
[num_machines: 1]
[local_listen_port: 12400]
[time_out: 120]
[machine_list_filename: ]
[machines: ]
[gpu_platform_id: -1]
[gpu_device_id: -1]
[gpu_use_dp: 0]
[num_gpu: 1]

end of parameters

pandas_categorical:null
